digraph Tree {
node [shape=box] ;
0 [label="hover <= 10.255\ngini = 0.4972\nsamples = 1035\nvalue = [556, 479]"] ;
1 [label="advertiser_Indeed.com <= 0.5\ngini = 0.3263\nsamples = 565\nvalue = [449, 116]"] ;
0 -> 1 [labeldistance=2.5, labelangle=45, headlabel="True"] ;
2 [label="smlplayer_100.00% <= 0.5\ngini = 0.3948\nsamples = 399\nvalue = [291, 108]"] ;
1 -> 2 ;
3 [label="advertiser_Church and Dwight <= 0.5\ngini = 0.4444\nsamples = 321\nvalue = [214, 107]"] ;
2 -> 3 ;
4 [label="hover <= 0.43\ngini = 0.4276\nsamples = 310\nvalue = [214, 96]"] ;
3 -> 4 ;
5 [label="Internet Explorer <= 0.5\ngini = 0.2984\nsamples = 126\nvalue = [103, 23]"] ;
4 -> 5 ;
6 [label="gini = 0.1753\nsamples = 103\nvalue = [93, 10]"] ;
5 -> 6 ;
7 [label="gini = 0.4915\nsamples = 23\nvalue = [10, 13]"] ;
5 -> 7 ;
8 [label="btf <= 74.3\ngini = 0.4787\nsamples = 184\nvalue = [111, 73]"] ;
4 -> 8 ;
9 [label="gini = 0.4992\nsamples = 150\nvalue = [78, 72]"] ;
8 -> 9 ;
10 [label="gini = 0.0571\nsamples = 34\nvalue = [33, 1]"] ;
8 -> 10 ;
11 [label="gini = 0.0\nsamples = 11\nvalue = [0, 11]"] ;
3 -> 11 ;
12 [label="btf <= 20.785\ngini = 0.0253\nsamples = 78\nvalue = [77, 1]"] ;
2 -> 12 ;
13 [label="btf <= 5.305\ngini = 0.1528\nsamples = 12\nvalue = [11, 1]"] ;
12 -> 13 ;
14 [label="gini = 0.0\nsamples = 7\nvalue = [7, 0]"] ;
13 -> 14 ;
15 [label="gini = 0.32\nsamples = 5\nvalue = [4, 1]"] ;
13 -> 15 ;
16 [label="gini = 0.0\nsamples = 66\nvalue = [66, 0]"] ;
12 -> 16 ;
17 [label="supply_stickyads <= 0.5\ngini = 0.0917\nsamples = 166\nvalue = [158, 8]"] ;
1 -> 17 ;
18 [label="btf <= 42.165\ngini = 0.0512\nsamples = 152\nvalue = [148, 4]"] ;
17 -> 18 ;
19 [label="gini = 0.0\nsamples = 120\nvalue = [120, 0]"] ;
18 -> 19 ;
20 [label="btf <= 53.26\ngini = 0.2188\nsamples = 32\nvalue = [28, 4]"] ;
18 -> 20 ;
21 [label="hover <= 3.585\ngini = 0.4628\nsamples = 11\nvalue = [7, 4]"] ;
20 -> 21 ;
22 [label="gini = 0.4444\nsamples = 6\nvalue = [2, 4]"] ;
21 -> 22 ;
23 [label="gini = 0.0\nsamples = 5\nvalue = [5, 0]"] ;
21 -> 23 ;
24 [label="gini = 0.0\nsamples = 21\nvalue = [21, 0]"] ;
20 -> 24 ;
25 [label="btf <= 20.54\ngini = 0.4082\nsamples = 14\nvalue = [10, 4]"] ;
17 -> 25 ;
26 [label="gini = 0.4444\nsamples = 6\nvalue = [2, 4]"] ;
25 -> 26 ;
27 [label="gini = 0.0\nsamples = 8\nvalue = [8, 0]"] ;
25 -> 27 ;
28 [label="Internet Explorer <= 0.5\ngini = 0.3517\nsamples = 470\nvalue = [107, 363]"] ;
0 -> 28 [labeldistance=2.5, labelangle=-45, headlabel="False"] ;
29 [label="hover <= 86.905\ngini = 0.4598\nsamples = 215\nvalue = [77, 138]"] ;
28 -> 29 ;
30 [label="btf <= 53.715\ngini = 0.4144\nsamples = 174\nvalue = [51, 123]"] ;
29 -> 30 ;
31 [label="supply_liverail <= 0.5\ngini = 0.3561\nsamples = 151\nvalue = [35, 116]"] ;
30 -> 31 ;
32 [label="supply_brightroll <= 0.5\ngini = 0.2975\nsamples = 132\nvalue = [24, 108]"] ;
31 -> 32 ;
33 [label="gini = 0.3398\nsamples = 106\nvalue = [23, 83]"] ;
32 -> 33 ;
34 [label="gini = 0.074\nsamples = 26\nvalue = [1, 25]"] ;
32 -> 34 ;
35 [label="hover <= 48.745\ngini = 0.4875\nsamples = 19\nvalue = [11, 8]"] ;
31 -> 35 ;
36 [label="gini = 0.2604\nsamples = 13\nvalue = [11, 2]"] ;
35 -> 36 ;
37 [label="gini = 0.0\nsamples = 6\nvalue = [0, 6]"] ;
35 -> 37 ;
38 [label="hover <= 16.57\ngini = 0.4234\nsamples = 23\nvalue = [16, 7]"] ;
30 -> 38 ;
39 [label="gini = 0.0\nsamples = 5\nvalue = [5, 0]"] ;
38 -> 39 ;
40 [label="advertiser_NBCU <= 0.5\ngini = 0.4753\nsamples = 18\nvalue = [11, 7]"] ;
38 -> 40 ;
41 [label="gini = 0.375\nsamples = 12\nvalue = [9, 3]"] ;
40 -> 41 ;
42 [label="gini = 0.4444\nsamples = 6\nvalue = [2, 4]"] ;
40 -> 42 ;
43 [label="hover <= 90.73\ngini = 0.464\nsamples = 41\nvalue = [26, 15]"] ;
29 -> 43 ;
44 [label="hover <= 89.045\ngini = 0.3107\nsamples = 26\nvalue = [21, 5]"] ;
43 -> 44 ;
45 [label="hover <= 87.83\ngini = 0.4861\nsamples = 12\nvalue = [7, 5]"] ;
44 -> 45 ;
46 [label="gini = 0.2778\nsamples = 6\nvalue = [5, 1]"] ;
45 -> 46 ;
47 [label="gini = 0.4444\nsamples = 6\nvalue = [2, 4]"] ;
45 -> 47 ;
48 [label="gini = 0.0\nsamples = 14\nvalue = [14, 0]"] ;
44 -> 48 ;
49 [label="hover <= 92.565\ngini = 0.4444\nsamples = 15\nvalue = [5, 10]"] ;
43 -> 49 ;
50 [label="gini = 0.2188\nsamples = 8\nvalue = [1, 7]"] ;
49 -> 50 ;
51 [label="gini = 0.4898\nsamples = 7\nvalue = [4, 3]"] ;
49 -> 51 ;
52 [label="hover <= 35.495\ngini = 0.2076\nsamples = 255\nvalue = [30, 225]"] ;
28 -> 52 ;
53 [label="btf <= 32.905\ngini = 0.4289\nsamples = 61\nvalue = [19, 42]"] ;
52 -> 53 ;
54 [label="btf <= 7.28\ngini = 0.375\nsamples = 56\nvalue = [14, 42]"] ;
53 -> 54 ;
55 [label="supply_brightroll <= 0.5\ngini = 0.2887\nsamples = 40\nvalue = [7, 33]"] ;
54 -> 55 ;
56 [label="gini = 0.375\nsamples = 28\nvalue = [7, 21]"] ;
55 -> 56 ;
57 [label="gini = 0.0\nsamples = 12\nvalue = [0, 12]"] ;
55 -> 57 ;
58 [label="supply_(unclassified) <= 0.5\ngini = 0.4922\nsamples = 16\nvalue = [7, 9]"] ;
54 -> 58 ;
59 [label="gini = 0.4688\nsamples = 8\nvalue = [5, 3]"] ;
58 -> 59 ;
60 [label="gini = 0.375\nsamples = 8\nvalue = [2, 6]"] ;
58 -> 60 ;
61 [label="gini = 0.0\nsamples = 5\nvalue = [5, 0]"] ;
53 -> 61 ;
62 [label="supply_adaptv <= 0.5\ngini = 0.107\nsamples = 194\nvalue = [11, 183]"] ;
52 -> 62 ;
63 [label="advertiser_Pandora_Maxus <= 0.5\ngini = 0.0679\nsamples = 142\nvalue = [5, 137]"] ;
62 -> 63 ;
64 [label="btf <= 0.985\ngini = 0.0567\nsamples = 137\nvalue = [4, 133]"] ;
63 -> 64 ;
65 [label="gini = 0.0345\nsamples = 114\nvalue = [2, 112]"] ;
64 -> 65 ;
66 [label="gini = 0.1588\nsamples = 23\nvalue = [2, 21]"] ;
64 -> 66 ;
67 [label="gini = 0.32\nsamples = 5\nvalue = [1, 4]"] ;
63 -> 67 ;
68 [label="hover <= 46.81\ngini = 0.2041\nsamples = 52\nvalue = [6, 46]"] ;
62 -> 68 ;
69 [label="gini = 0.0\nsamples = 19\nvalue = [0, 19]"] ;
68 -> 69 ;
70 [label="hover <= 50.11\ngini = 0.2975\nsamples = 33\nvalue = [6, 27]"] ;
68 -> 70 ;
71 [label="gini = 0.48\nsamples = 10\nvalue = [4, 6]"] ;
70 -> 71 ;
72 [label="gini = 0.1588\nsamples = 23\nvalue = [2, 21]"] ;
70 -> 72 ;
}